digraph Tree {
node [shape=box, style="rounded", color="black", fontname=helvetica] ;
edge [fontname=helvetica] ;
0 [label="tipologia(FruttaVerdura,Pesce,Carne,Casa,Elettronica)_FruttaVerdura <= 0.5\ngini = 0.8\nsamples = 346\nvalue = [31, 69, 156, 101, 67, 57, 51]"] ;
1 [label="scadenza(Breve,Media,Lunga)_Media <= 0.5\ngini = 0.8\nsamples = 290\nvalue = [12, 48, 125, 93, 63, 57, 51]"] ;
0 -> 1 [labeldistance=2.5, labelangle=45, headlabel="True"] ;
2 [label="tipologia(FruttaVerdura,Pesce,Carne,Casa,Elettronica)_Casa <= 0.5\ngini = 0.8\nsamples = 244\nvalue = [12, 40, 109, 60, 43, 57, 51]"] ;
1 -> 2 ;
3 [label="gini = 0.8\nsamples = 177\nvalue = [12, 37, 96, 39, 31, 35, 26]"] ;
2 -> 3 ;
4 [label="gini = 0.8\nsamples = 67\nvalue = [0, 3, 13, 21, 12, 22, 25]"] ;
2 -> 4 ;
5 [label="dimensione confezione(Piccola,Media,Grande)_Piccola <= 0.5\ngini = 0.7\nsamples = 46\nvalue = [0, 8, 16, 33, 20, 0, 0]"] ;
1 -> 5 ;
6 [label="gini = 0.6\nsamples = 28\nvalue = [0, 7, 3, 27, 12, 0, 0]"] ;
5 -> 6 ;
7 [label="gini = 0.7\nsamples = 18\nvalue = [0, 1, 13, 6, 8, 0, 0]"] ;
5 -> 7 ;
8 [label="dimensione confezione(Piccola,Media,Grande)_Piccola <= 0.5\ngini = 0.7\nsamples = 56\nvalue = [19, 21, 31, 8, 4, 0, 0]"] ;
0 -> 8 [labeldistance=2.5, labelangle=-45, headlabel="False"] ;
9 [label="scadenza(Breve,Media,Lunga)_Media <= 0.5\ngini = 0.7\nsamples = 29\nvalue = [19, 7, 11, 4, 4, 0, 0]"] ;
8 -> 9 ;
10 [label="gini = 0.6\nsamples = 22\nvalue = [19, 7, 3, 0, 4, 0, 0]"] ;
9 -> 10 ;
11 [label="gini = 0.4\nsamples = 7\nvalue = [0, 0, 8, 4, 0, 0, 0]"] ;
9 -> 11 ;
12 [label="scadenza(Breve,Media,Lunga)_Media <= 0.5\ngini = 0.6\nsamples = 27\nvalue = [0, 14, 20, 4, 0, 0, 0]"] ;
8 -> 12 ;
13 [label="gini = 0.5\nsamples = 24\nvalue = [0, 14, 20, 0, 0, 0, 0]"] ;
12 -> 13 ;
14 [label="gini = 0.0\nsamples = 3\nvalue = [0, 0, 0, 4, 0, 0, 0]"] ;
12 -> 14 ;
}