digraph Tree {
node [shape=box, style="rounded", color="black", fontname=helvetica] ;
edge [fontname=helvetica] ;
0 [label="scadenza(breve,media,lunga)_Breve <= 0.5\ngini = 0.8\nsamples = 217\nvalue = [20, 47, 86, 70, 70, 30, 13]"] ;
1 [label="dimensione confezione(piccola,media,grande)_Piccola <= 0.5\ngini = 0.8\nsamples = 155\nvalue = [0, 19, 44, 69, 57, 30, 13]"] ;
0 -> 1 [labeldistance=2.5, labelangle=45, headlabel="True"] ;
2 [label="tipologia(verdura,frutta,pesce,carne,casa,elettronica)_Pesce <= 0.5\ngini = 0.8\nsamples = 101\nvalue = [0, 15, 36, 35, 24, 17, 11]"] ;
1 -> 2 ;
3 [label="gini = 0.8\nsamples = 78\nvalue = [0, 12, 27, 26, 16, 17, 11]"] ;
2 -> 3 ;
4 [label="gini = 0.7\nsamples = 23\nvalue = [0, 3, 9, 9, 8, 0, 0]"] ;
2 -> 4 ;
5 [label="costo(prezzo) <= 750.0\ngini = 0.7\nsamples = 54\nvalue = [0, 4, 8, 34, 33, 13, 2]"] ;
1 -> 5 ;
6 [label="gini = 0.7\nsamples = 48\nvalue = [0, 4, 7, 24, 33, 13, 2]"] ;
5 -> 6 ;
7 [label="gini = 0.2\nsamples = 6\nvalue = [0, 0, 1, 10, 0, 0, 0]"] ;
5 -> 7 ;
8 [label="costo(prezzo) <= 75.0\ngini = 0.7\nsamples = 62\nvalue = [20, 28, 42, 1, 13, 0, 0]"] ;
0 -> 8 [labeldistance=2.5, labelangle=-45, headlabel="False"] ;
9 [label="dimensione confezione(piccola,media,grande)_Media <= 0.5\ngini = 0.6\nsamples = 45\nvalue = [0, 18, 42, 1, 13, 0, 0]"] ;
8 -> 9 ;
10 [label="gini = 0.7\nsamples = 31\nvalue = [0, 12, 22, 1, 13, 0, 0]"] ;
9 -> 10 ;
11 [label="gini = 0.4\nsamples = 14\nvalue = [0, 6, 20, 0, 0, 0, 0]"] ;
9 -> 11 ;
12 [label="tipologia(verdura,frutta,pesce,carne,casa,elettronica)_Carne <= 0.5\ngini = 0.4\nsamples = 17\nvalue = [20, 10, 0, 0, 0, 0, 0]"] ;
8 -> 12 ;
13 [label="gini = 0.5\nsamples = 9\nvalue = [9, 7, 0, 0, 0, 0, 0]"] ;
12 -> 13 ;
14 [label="gini = 0.3\nsamples = 8\nvalue = [11, 3, 0, 0, 0, 0, 0]"] ;
12 -> 14 ;
}