digraph Tree {
node [shape=box, style="rounded", color="black", fontname=helvetica] ;
edge [fontname=helvetica] ;
0 [label="scadenza(Breve,Media,Lunga)_Lunga <= 0.5\ngini = 0.8\nsamples = 336\nvalue = [22, 71, 179, 89, 72, 58, 41]"] ;
1 [label="festività(Feriale,Lavorativo)_Feriale <= 0.5\ngini = 0.7\nsamples = 142\nvalue = [22, 52, 103, 29, 23, 0, 0]"] ;
0 -> 1 [labeldistance=2.5, labelangle=45, headlabel="True"] ;
2 [label="stagione_Primavera <= 0.5\ngini = 0.6\nsamples = 84\nvalue = [20, 52, 65, 2, 0, 0, 0]"] ;
1 -> 2 ;
3 [label="gini = 0.6\nsamples = 64\nvalue = [16, 34, 55, 2, 0, 0, 0]"] ;
2 -> 3 ;
4 [label="gini = 0.6\nsamples = 20\nvalue = [4, 18, 10, 0, 0, 0, 0]"] ;
2 -> 4 ;
5 [label="spedizione(prezzo) <= 8.5\ngini = 0.7\nsamples = 58\nvalue = [2, 0, 38, 27, 23, 0, 0]"] ;
1 -> 5 ;
6 [label="gini = 0.5\nsamples = 18\nvalue = [0, 0, 1, 13, 9, 0, 0]"] ;
5 -> 6 ;
7 [label="gini = 0.6\nsamples = 40\nvalue = [2, 0, 37, 14, 14, 0, 0]"] ;
5 -> 7 ;
8 [label="festività(Feriale,Lavorativo)_Feriale <= 0.5\ngini = 0.8\nsamples = 194\nvalue = [0, 19, 76, 60, 49, 58, 41]"] ;
0 -> 8 [labeldistance=2.5, labelangle=-45, headlabel="False"] ;
9 [label="tipologia(FruttaVerdura,Pesce,Carne,Casa,Elettronica)_Pesce <= 0.5\ngini = 0.8\nsamples = 134\nvalue = [0, 19, 73, 41, 19, 29, 29]"] ;
8 -> 9 ;
10 [label="gini = 0.8\nsamples = 116\nvalue = [0, 14, 54, 36, 18, 29, 29]"] ;
9 -> 10 ;
11 [label="gini = 0.5\nsamples = 18\nvalue = [0, 5, 19, 5, 1, 0, 0]"] ;
9 -> 11 ;
12 [label="dimensione confezione(Piccola,Media,Grande)_Grande <= 0.5\ngini = 0.7\nsamples = 60\nvalue = [0, 0, 3, 19, 30, 29, 12]"] ;
8 -> 12 ;
13 [label="gini = 0.8\nsamples = 44\nvalue = [0, 0, 3, 15, 24, 17, 12]"] ;
12 -> 13 ;
14 [label="gini = 0.6\nsamples = 16\nvalue = [0, 0, 0, 4, 6, 12, 0]"] ;
12 -> 14 ;
}