digraph Tree {
node [shape=box, style="rounded", color="black", fontname=helvetica] ;
edge [fontname=helvetica] ;
0 [label="spedizione(prezzo) <= 6.0\ngini = 0.8\nsamples = 95\nvalue = [9, 42, 35, 15, 19, 25]"] ;
1 [label="stagione_Inverno <= 0.5\ngini = 0.5\nsamples = 19\nvalue = [0, 0, 0, 0, 10, 18]"] ;
0 -> 1 [labeldistance=2.5, labelangle=45, headlabel="True"] ;
2 [label="stagione_Autunno <= 0.5\ngini = 0.5\nsamples = 15\nvalue = [0, 0, 0, 0, 9, 12]"] ;
1 -> 2 ;
3 [label="zona supermercato(periferia,residenziale)_Residenziale <= 0.5\ngini = 0.5\nsamples = 10\nvalue = [0, 0, 0, 0, 6, 10]"] ;
2 -> 3 ;
4 [label="festività(Feriale,Lavorativo)_Feriale <= 0.5\ngini = 0.4\nsamples = 7\nvalue = [0, 0, 0, 0, 3, 9]"] ;
3 -> 4 ;
5 [label="stagione_Primavera <= 0.5\ngini = 0.4\nsamples = 6\nvalue = [0, 0, 0, 0, 3, 6]"] ;
4 -> 5 ;
6 [label="costo(prezzo) <= 15.0\ngini = 0.4\nsamples = 2\nvalue = [0, 0, 0, 0, 1, 2]"] ;
5 -> 6 ;
7 [label="gini = 0.0\nsamples = 1\nvalue = [0, 0, 0, 0, 0, 2]"] ;
6 -> 7 ;
8 [label="gini = 0.0\nsamples = 1\nvalue = [0, 0, 0, 0, 1, 0]"] ;
6 -> 8 ;
9 [label="costo(prezzo) <= 15.0\ngini = 0.4\nsamples = 4\nvalue = [0, 0, 0, 0, 2, 4]"] ;
5 -> 9 ;
10 [label="gini = 0.0\nsamples = 2\nvalue = [0, 0, 0, 0, 0, 4]"] ;
9 -> 10 ;
11 [label="gini = 0.0\nsamples = 2\nvalue = [0, 0, 0, 0, 2, 0]"] ;
9 -> 11 ;
12 [label="gini = 0.0\nsamples = 1\nvalue = [0, 0, 0, 0, 0, 3]"] ;
4 -> 12 ;
13 [label="stagione_Primavera <= 0.5\ngini = 0.4\nsamples = 3\nvalue = [0, 0, 0, 0, 3, 1]"] ;
3 -> 13 ;
14 [label="gini = 0.0\nsamples = 1\nvalue = [0, 0, 0, 0, 2, 0]"] ;
13 -> 14 ;
15 [label="costo(prezzo) <= 15.0\ngini = 0.5\nsamples = 2\nvalue = [0, 0, 0, 0, 1, 1]"] ;
13 -> 15 ;
16 [label="gini = 0.0\nsamples = 1\nvalue = [0, 0, 0, 0, 0, 1]"] ;
15 -> 16 ;
17 [label="gini = 0.0\nsamples = 1\nvalue = [0, 0, 0, 0, 1, 0]"] ;
15 -> 17 ;
18 [label="festività(Feriale,Lavorativo)_Feriale <= 0.5\ngini = 0.5\nsamples = 5\nvalue = [0, 0, 0, 0, 3, 2]"] ;
2 -> 18 ;
19 [label="zona supermercato(periferia,residenziale)_Residenziale <= 0.5\ngini = 0.4\nsamples = 4\nvalue = [0, 0, 0, 0, 3, 1]"] ;
18 -> 19 ;
20 [label="costo(prezzo) <= 15.0\ngini = 0.4\nsamples = 3\nvalue = [0, 0, 0, 0, 2, 1]"] ;
19 -> 20 ;
21 [label="gini = 0.0\nsamples = 1\nvalue = [0, 0, 0, 0, 0, 1]"] ;
20 -> 21 ;
22 [label="gini = 0.0\nsamples = 2\nvalue = [0, 0, 0, 0, 2, 0]"] ;
20 -> 22 ;
23 [label="gini = 0.0\nsamples = 1\nvalue = [0, 0, 0, 0, 1, 0]"] ;
19 -> 23 ;
24 [label="gini = 0.0\nsamples = 1\nvalue = [0, 0, 0, 0, 0, 1]"] ;
18 -> 24 ;
25 [label="festività(Feriale,Lavorativo)_Lavorativo <= 0.5\ngini = 0.2\nsamples = 4\nvalue = [0, 0, 0, 0, 1, 6]"] ;
1 -> 25 ;
26 [label="gini = 0.0\nsamples = 2\nvalue = [0, 0, 0, 0, 0, 4]"] ;
25 -> 26 ;
27 [label="costo(prezzo) <= 15.0\ngini = 0.4\nsamples = 2\nvalue = [0, 0, 0, 0, 1, 2]"] ;
25 -> 27 ;
28 [label="gini = 0.0\nsamples = 1\nvalue = [0, 0, 0, 0, 0, 2]"] ;
27 -> 28 ;
29 [label="gini = 0.0\nsamples = 1\nvalue = [0, 0, 0, 0, 1, 0]"] ;
27 -> 29 ;
30 [label="costo(prezzo) <= 55.0\ngini = 0.7\nsamples = 76\nvalue = [9, 42, 35, 15, 9, 7]"] ;
0 -> 30 [labeldistance=2.5, labelangle=-45, headlabel="False"] ;
31 [label="festività(Feriale,Lavorativo)_Feriale <= 0.5\ngini = 0.7\nsamples = 16\nvalue = [0, 1, 3, 2, 9, 7]"] ;
30 -> 31 ;
32 [label="zona supermercato(periferia,residenziale)_Residenziale <= 0.5\ngini = 0.7\nsamples = 11\nvalue = [0, 1, 3, 2, 3, 7]"] ;
31 -> 32 ;
33 [label="dimensione confezione(piccola,media,grande)_Media <= 0.5\ngini = 0.5\nsamples = 6\nvalue = [0, 1, 0, 2, 0, 5]"] ;
32 -> 33 ;
34 [label="dimensione confezione(piccola,media,grande)_Piccola <= 0.5\ngini = 0.4\nsamples = 2\nvalue = [0, 1, 0, 2, 0, 0]"] ;
33 -> 34 ;
35 [label="gini = 0.0\nsamples = 1\nvalue = [0, 0, 0, 2, 0, 0]"] ;
34 -> 35 ;
36 [label="gini = 0.0\nsamples = 1\nvalue = [0, 1, 0, 0, 0, 0]"] ;
34 -> 36 ;
37 [label="gini = 0.0\nsamples = 4\nvalue = [0, 0, 0, 0, 0, 5]"] ;
33 -> 37 ;
38 [label="scadenza(breve,media,lunga)_Media <= 0.5\ngini = 0.7\nsamples = 5\nvalue = [0, 0, 3, 0, 3, 2]"] ;
32 -> 38 ;
39 [label="stagione_Estate <= 0.5\ngini = 0.5\nsamples = 4\nvalue = [0, 0, 0, 0, 3, 2]"] ;
38 -> 39 ;
40 [label="stagione_Primavera <= 0.5\ngini = 0.4\nsamples = 3\nvalue = [0, 0, 0, 0, 3, 1]"] ;
39 -> 40 ;
41 [label="gini = 0.0\nsamples = 2\nvalue = [0, 0, 0, 0, 3, 0]"] ;
40 -> 41 ;
42 [label="gini = 0.0\nsamples = 1\nvalue = [0, 0, 0, 0, 0, 1]"] ;
40 -> 42 ;
43 [label="gini = 0.0\nsamples = 1\nvalue = [0, 0, 0, 0, 0, 1]"] ;
39 -> 43 ;
44 [label="gini = 0.0\nsamples = 1\nvalue = [0, 0, 3, 0, 0, 0]"] ;
38 -> 44 ;
45 [label="gini = 0.0\nsamples = 5\nvalue = [0, 0, 0, 0, 6, 0]"] ;
31 -> 45 ;
46 [label="scadenza(breve,media,lunga)_Media <= 0.5\ngini = 0.7\nsamples = 60\nvalue = [9, 41, 32, 13, 0, 0]"] ;
30 -> 46 ;
47 [label="stagione_Autunno <= 0.5\ngini = 0.7\nsamples = 38\nvalue = [2, 21, 23, 12, 0, 0]"] ;
46 -> 47 ;
48 [label="zona supermercato(periferia,residenziale)_Residenziale <= 0.5\ngini = 0.7\nsamples = 28\nvalue = [2, 15, 11, 11, 0, 0]"] ;
47 -> 48 ;
49 [label="dimensione confezione(piccola,media,grande)_Grande <= 0.5\ngini = 0.6\nsamples = 11\nvalue = [2, 9, 3, 2, 0, 0]"] ;
48 -> 49 ;
50 [label="festività(Feriale,Lavorativo)_Feriale <= 0.5\ngini = 0.7\nsamples = 10\nvalue = [2, 6, 3, 2, 0, 0]"] ;
49 -> 50 ;
51 [label="spedizione(prezzo) <= 15.0\ngini = 0.6\nsamples = 7\nvalue = [2, 4, 2, 0, 0, 0]"] ;
50 -> 51 ;
52 [label="dimensione confezione(piccola,media,grande)_Piccola <= 0.5\ngini = 0.5\nsamples = 4\nvalue = [0, 3, 2, 0, 0, 0]"] ;
51 -> 52 ;
53 [label="stagione_Inverno <= 0.5\ngini = 0.4\nsamples = 3\nvalue = [0, 3, 1, 0, 0, 0]"] ;
52 -> 53 ;
54 [label="spedizione(prezzo) <= 8.5\ngini = 0.4\nsamples = 2\nvalue = [0, 2, 1, 0, 0, 0]"] ;
53 -> 54 ;
55 [label="gini = 0.0\nsamples = 1\nvalue = [0, 2, 0, 0, 0, 0]"] ;
54 -> 55 ;
56 [label="gini = 0.0\nsamples = 1\nvalue = [0, 0, 1, 0, 0, 0]"] ;
54 -> 56 ;
57 [label="gini = 0.0\nsamples = 1\nvalue = [0, 1, 0, 0, 0, 0]"] ;
53 -> 57 ;
58 [label="gini = 0.0\nsamples = 1\nvalue = [0, 0, 1, 0, 0, 0]"] ;
52 -> 58 ;
59 [label="stagione_Inverno <= 0.5\ngini = 0.4\nsamples = 3\nvalue = [2, 1, 0, 0, 0, 0]"] ;
51 -> 59 ;
60 [label="gini = 0.0\nsamples = 1\nvalue = [1, 0, 0, 0, 0, 0]"] ;
59 -> 60 ;
61 [label="dimensione confezione(piccola,media,grande)_Piccola <= 0.5\ngini = 0.5\nsamples = 2\nvalue = [1, 1, 0, 0, 0, 0]"] ;
59 -> 61 ;
62 [label="gini = 0.0\nsamples = 1\nvalue = [1, 0, 0, 0, 0, 0]"] ;
61 -> 62 ;
63 [label="gini = 0.0\nsamples = 1\nvalue = [0, 1, 0, 0, 0, 0]"] ;
61 -> 63 ;
64 [label="dimensione confezione(piccola,media,grande)_Piccola <= 0.5\ngini = 0.6\nsamples = 3\nvalue = [0, 2, 1, 2, 0, 0]"] ;
50 -> 64 ;
65 [label="gini = 0.0\nsamples = 1\nvalue = [0, 2, 0, 0, 0, 0]"] ;
64 -> 65 ;
66 [label="stagione_Estate <= 0.5\ngini = 0.4\nsamples = 2\nvalue = [0, 0, 1, 2, 0, 0]"] ;
64 -> 66 ;
67 [label="gini = 0.0\nsamples = 1\nvalue = [0, 0, 0, 2, 0, 0]"] ;
66 -> 67 ;
68 [label="gini = 0.0\nsamples = 1\nvalue = [0, 0, 1, 0, 0, 0]"] ;
66 -> 68 ;
69 [label="gini = 0.0\nsamples = 1\nvalue = [0, 3, 0, 0, 0, 0]"] ;
49 -> 69 ;
70 [label="spedizione(prezzo) <= 15.0\ngini = 0.7\nsamples = 17\nvalue = [0, 6, 8, 9, 0, 0]"] ;
48 -> 70 ;
71 [label="stagione_Primavera <= 0.5\ngini = 0.6\nsamples = 13\nvalue = [0, 3, 5, 9, 0, 0]"] ;
70 -> 71 ;
72 [label="dimensione confezione(piccola,media,grande)_Grande <= 0.5\ngini = 0.7\nsamples = 10\nvalue = [0, 3, 5, 4, 0, 0]"] ;
71 -> 72 ;
73 [label="costo(prezzo) <= 150.0\ngini = 0.7\nsamples = 7\nvalue = [0, 3, 3, 2, 0, 0]"] ;
72 -> 73 ;
74 [label="gini = 0.0\nsamples = 2\nvalue = [0, 0, 3, 0, 0, 0]"] ;
73 -> 74 ;
75 [label="stagione_Inverno <= 0.5\ngini = 0.5\nsamples = 5\nvalue = [0, 3, 0, 2, 0, 0]"] ;
73 -> 75 ;
76 [label="festività(Feriale,Lavorativo)_Lavorativo <= 0.5\ngini = 0.4\nsamples = 3\nvalue = [0, 1, 0, 2, 0, 0]"] ;
75 -> 76 ;
77 [label="gini = 0.0\nsamples = 1\nvalue = [0, 1, 0, 0, 0, 0]"] ;
76 -> 77 ;
78 [label="gini = 0.0\nsamples = 2\nvalue = [0, 0, 0, 2, 0, 0]"] ;
76 -> 78 ;
79 [label="gini = 0.0\nsamples = 2\nvalue = [0, 2, 0, 0, 0, 0]"] ;
75 -> 79 ;
80 [label="festività(Feriale,Lavorativo)_Feriale <= 0.5\ngini = 0.5\nsamples = 3\nvalue = [0, 0, 2, 2, 0, 0]"] ;
72 -> 80 ;
81 [label="gini = 0.0\nsamples = 1\nvalue = [0, 0, 2, 0, 0, 0]"] ;
80 -> 81 ;
82 [label="gini = 0.0\nsamples = 2\nvalue = [0, 0, 0, 2, 0, 0]"] ;
80 -> 82 ;
83 [label="gini = 0.0\nsamples = 3\nvalue = [0, 0, 0, 5, 0, 0]"] ;
71 -> 83 ;
84 [label="stagione_Primavera <= 0.5\ngini = 0.5\nsamples = 4\nvalue = [0, 3, 3, 0, 0, 0]"] ;
70 -> 84 ;
85 [label="gini = 0.4\nsamples = 2\nvalue = [0, 1, 2, 0, 0, 0]"] ;
84 -> 85 ;
86 [label="gini = 0.4\nsamples = 2\nvalue = [0, 2, 1, 0, 0, 0]"] ;
84 -> 86 ;
87 [label="zona supermercato(periferia,residenziale)_Periferia <= 0.5\ngini = 0.5\nsamples = 10\nvalue = [0, 6, 12, 1, 0, 0]"] ;
47 -> 87 ;
88 [label="spedizione(prezzo) <= 15.0\ngini = 0.2\nsamples = 4\nvalue = [0, 0, 6, 1, 0, 0]"] ;
87 -> 88 ;
89 [label="dimensione confezione(piccola,media,grande)_Piccola <= 0.5\ngini = 0.4\nsamples = 2\nvalue = [0, 0, 3, 1, 0, 0]"] ;
88 -> 89 ;
90 [label="gini = 0.0\nsamples = 1\nvalue = [0, 0, 0, 1, 0, 0]"] ;
89 -> 90 ;
91 [label="gini = 0.0\nsamples = 1\nvalue = [0, 0, 3, 0, 0, 0]"] ;
89 -> 91 ;
92 [label="gini = 0.0\nsamples = 2\nvalue = [0, 0, 3, 0, 0, 0]"] ;
88 -> 92 ;
93 [label="festività(Feriale,Lavorativo)_Feriale <= 0.5\ngini = 0.5\nsamples = 6\nvalue = [0, 6, 6, 0, 0, 0]"] ;
87 -> 93 ;
94 [label="dimensione confezione(piccola,media,grande)_Media <= 0.5\ngini = 0.5\nsamples = 5\nvalue = [0, 6, 4, 0, 0, 0]"] ;
93 -> 94 ;
95 [label="dimensione confezione(piccola,media,grande)_Grande <= 0.5\ngini = 0.5\nsamples = 3\nvalue = [0, 3, 3, 0, 0, 0]"] ;
94 -> 95 ;
96 [label="costo(prezzo) <= 750.0\ngini = 0.4\nsamples = 2\nvalue = [0, 1, 3, 0, 0, 0]"] ;
95 -> 96 ;
97 [label="gini = 0.0\nsamples = 1\nvalue = [0, 0, 3, 0, 0, 0]"] ;
96 -> 97 ;
98 [label="gini = 0.0\nsamples = 1\nvalue = [0, 1, 0, 0, 0, 0]"] ;
96 -> 98 ;
99 [label="gini = 0.0\nsamples = 1\nvalue = [0, 2, 0, 0, 0, 0]"] ;
95 -> 99 ;
100 [label="costo(prezzo) <= 300.0\ngini = 0.4\nsamples = 2\nvalue = [0, 3, 1, 0, 0, 0]"] ;
94 -> 100 ;
101 [label="gini = 0.0\nsamples = 1\nvalue = [0, 0, 1, 0, 0, 0]"] ;
100 -> 101 ;
102 [label="gini = 0.0\nsamples = 1\nvalue = [0, 3, 0, 0, 0, 0]"] ;
100 -> 102 ;
103 [label="gini = 0.0\nsamples = 1\nvalue = [0, 0, 2, 0, 0, 0]"] ;
93 -> 103 ;
104 [label="festività(Feriale,Lavorativo)_Lavorativo <= 0.5\ngini = 0.6\nsamples = 22\nvalue = [7, 20, 9, 1, 0, 0]"] ;
46 -> 104 ;
105 [label="stagione_Estate <= 0.5\ngini = 0.4\nsamples = 12\nvalue = [0, 16, 6, 0, 0, 0]"] ;
104 -> 105 ;
106 [label="zona supermercato(periferia,residenziale)_Residenziale <= 0.5\ngini = 0.4\nsamples = 10\nvalue = [0, 14, 6, 0, 0, 0]"] ;
105 -> 106 ;
107 [label="gini = 0.0\nsamples = 4\nvalue = [0, 10, 0, 0, 0, 0]"] ;
106 -> 107 ;
108 [label="stagione_Primavera <= 0.5\ngini = 0.5\nsamples = 6\nvalue = [0, 4, 6, 0, 0, 0]"] ;
106 -> 108 ;
109 [label="stagione_Inverno <= 0.5\ngini = 0.5\nsamples = 4\nvalue = [0, 3, 5, 0, 0, 0]"] ;
108 -> 109 ;
110 [label="dimensione confezione(piccola,media,grande)_Media <= 0.5\ngini = 0.5\nsamples = 2\nvalue = [0, 2, 3, 0, 0, 0]"] ;
109 -> 110 ;
111 [label="gini = 0.0\nsamples = 1\nvalue = [0, 0, 3, 0, 0, 0]"] ;
110 -> 111 ;
112 [label="gini = 0.0\nsamples = 1\nvalue = [0, 2, 0, 0, 0, 0]"] ;
110 -> 112 ;
113 [label="dimensione confezione(piccola,media,grande)_Media <= 0.5\ngini = 0.4\nsamples = 2\nvalue = [0, 1, 2, 0, 0, 0]"] ;
109 -> 113 ;
114 [label="gini = 0.0\nsamples = 1\nvalue = [0, 0, 2, 0, 0, 0]"] ;
113 -> 114 ;
115 [label="gini = 0.0\nsamples = 1\nvalue = [0, 1, 0, 0, 0, 0]"] ;
113 -> 115 ;
116 [label="dimensione confezione(piccola,media,grande)_Piccola <= 0.5\ngini = 0.5\nsamples = 2\nvalue = [0, 1, 1, 0, 0, 0]"] ;
108 -> 116 ;
117 [label="gini = 0.0\nsamples = 1\nvalue = [0, 1, 0, 0, 0, 0]"] ;
116 -> 117 ;
118 [label="gini = 0.0\nsamples = 1\nvalue = [0, 0, 1, 0, 0, 0]"] ;
116 -> 118 ;
119 [label="gini = 0.0\nsamples = 2\nvalue = [0, 2, 0, 0, 0, 0]"] ;
105 -> 119 ;
120 [label="costo(prezzo) <= 150.0\ngini = 0.7\nsamples = 10\nvalue = [7, 4, 3, 1, 0, 0]"] ;
104 -> 120 ;
121 [label="stagione_Autunno <= 0.5\ngini = 0.4\nsamples = 3\nvalue = [0, 0, 3, 1, 0, 0]"] ;
120 -> 121 ;
122 [label="gini = 0.0\nsamples = 2\nvalue = [0, 0, 3, 0, 0, 0]"] ;
121 -> 122 ;
123 [label="gini = 0.0\nsamples = 1\nvalue = [0, 0, 0, 1, 0, 0]"] ;
121 -> 123 ;
124 [label="dimensione confezione(piccola,media,grande)_Piccola <= 0.5\ngini = 0.5\nsamples = 7\nvalue = [7, 4, 0, 0, 0, 0]"] ;
120 -> 124 ;
125 [label="gini = 0.0\nsamples = 4\nvalue = [6, 0, 0, 0, 0, 0]"] ;
124 -> 125 ;
126 [label="zona supermercato(periferia,residenziale)_Periferia <= 0.5\ngini = 0.3\nsamples = 3\nvalue = [1, 4, 0, 0, 0, 0]"] ;
124 -> 126 ;
127 [label="gini = 0.0\nsamples = 2\nvalue = [0, 4, 0, 0, 0, 0]"] ;
126 -> 127 ;
128 [label="gini = 0.0\nsamples = 1\nvalue = [1, 0, 0, 0, 0, 0]"] ;
126 -> 128 ;
}