digraph Tree {
node [shape=box, style="rounded", color="black", fontname=helvetica] ;
edge [fontname=helvetica] ;
0 [label="tipologia(verdura,frutta,pesce,carne,casa,elettronica)_Carne <= 0.5\ngini = 0.8\nsamples = 151\nvalue = [7, 15, 78, 46, 42, 19, 33]"] ;
1 [label="scadenza(breve,media,lunga)_Lunga <= 0.5\ngini = 0.8\nsamples = 93\nvalue = [0, 7, 34, 31, 25, 17, 33]"] ;
0 -> 1 [labeldistance=2.5, labelangle=45, headlabel="True"] ;
2 [label="festività(Feriale,Lavorativo)_Lavorativo <= 0.5\ngini = 0.7\nsamples = 16\nvalue = [0, 6, 11, 6, 2, 0, 0]"] ;
1 -> 2 ;
3 [label="gini = 0.0\nsamples = 3\nvalue = [0, 0, 3, 0, 0, 0, 0]"] ;
2 -> 3 ;
4 [label="dimensione confezione(piccola,media,grande)_Piccola <= 0.5\ngini = 0.7\nsamples = 13\nvalue = [0, 6, 8, 6, 2, 0, 0]"] ;
2 -> 4 ;
5 [label="zona supermercato(periferia,residenziale)_Periferia <= 0.5\ngini = 0.5\nsamples = 5\nvalue = [0, 5, 0, 1, 2, 0, 0]"] ;
4 -> 5 ;
6 [label="gini = 0.0\nsamples = 1\nvalue = [0, 0, 0, 1, 0, 0, 0]"] ;
5 -> 6 ;
7 [label="costo(prezzo) <= 150.0\ngini = 0.4\nsamples = 4\nvalue = [0, 5, 0, 0, 2, 0, 0]"] ;
5 -> 7 ;
8 [label="gini = 0.0\nsamples = 1\nvalue = [0, 0, 0, 0, 2, 0, 0]"] ;
7 -> 8 ;
9 [label="gini = 0.0\nsamples = 3\nvalue = [0, 5, 0, 0, 0, 0, 0]"] ;
7 -> 9 ;
10 [label="costo(prezzo) <= 105.0\ngini = 0.5\nsamples = 8\nvalue = [0, 1, 8, 5, 0, 0, 0]"] ;
4 -> 10 ;
11 [label="zona supermercato(periferia,residenziale)_Periferia <= 0.5\ngini = 0.5\nsamples = 4\nvalue = [0, 0, 3, 5, 0, 0, 0]"] ;
10 -> 11 ;
12 [label="gini = 0.0\nsamples = 2\nvalue = [0, 0, 0, 5, 0, 0, 0]"] ;
11 -> 12 ;
13 [label="gini = 0.0\nsamples = 2\nvalue = [0, 0, 3, 0, 0, 0, 0]"] ;
11 -> 13 ;
14 [label="stagione_Estate <= 0.5\ngini = 0.3\nsamples = 4\nvalue = [0, 1, 5, 0, 0, 0, 0]"] ;
10 -> 14 ;
15 [label="stagione_Autunno <= 0.5\ngini = 0.3\nsamples = 3\nvalue = [0, 1, 4, 0, 0, 0, 0]"] ;
14 -> 15 ;
16 [label="zona supermercato(periferia,residenziale)_Residenziale <= 0.5\ngini = 0.4\nsamples = 2\nvalue = [0, 1, 3, 0, 0, 0, 0]"] ;
15 -> 16 ;
17 [label="gini = 0.0\nsamples = 1\nvalue = [0, 1, 0, 0, 0, 0, 0]"] ;
16 -> 17 ;
18 [label="gini = 0.0\nsamples = 1\nvalue = [0, 0, 3, 0, 0, 0, 0]"] ;
16 -> 18 ;
19 [label="gini = 0.0\nsamples = 1\nvalue = [0, 0, 1, 0, 0, 0, 0]"] ;
15 -> 19 ;
20 [label="gini = 0.0\nsamples = 1\nvalue = [0, 0, 1, 0, 0, 0, 0]"] ;
14 -> 20 ;
21 [label="festività(Feriale,Lavorativo)_Feriale <= 0.5\ngini = 0.8\nsamples = 77\nvalue = [0, 1, 23, 25, 23, 17, 33]"] ;
1 -> 21 ;
22 [label="stagione_Autunno <= 0.5\ngini = 0.8\nsamples = 50\nvalue = [0, 1, 16, 20, 5, 9, 26]"] ;
21 -> 22 ;
23 [label="dimensione confezione(piccola,media,grande)_Media <= 0.5\ngini = 0.8\nsamples = 38\nvalue = [0, 1, 12, 13, 4, 9, 21]"] ;
22 -> 23 ;
24 [label="spedizione(prezzo) <= 7.5\ngini = 0.8\nsamples = 19\nvalue = [0, 0, 3, 10, 3, 5, 6]"] ;
23 -> 24 ;
25 [label="costo(prezzo) <= 15.0\ngini = 0.2\nsamples = 4\nvalue = [0, 0, 0, 0, 0, 1, 6]"] ;
24 -> 25 ;
26 [label="gini = 0.0\nsamples = 3\nvalue = [0, 0, 0, 0, 0, 0, 6]"] ;
25 -> 26 ;
27 [label="gini = 0.0\nsamples = 1\nvalue = [0, 0, 0, 0, 0, 1, 0]"] ;
25 -> 27 ;
28 [label="costo(prezzo) <= 55.0\ngini = 0.7\nsamples = 15\nvalue = [0, 0, 3, 10, 3, 4, 0]"] ;
24 -> 28 ;
29 [label="stagione_Inverno <= 0.5\ngini = 0.3\nsamples = 3\nvalue = [0, 0, 0, 0, 1, 4, 0]"] ;
28 -> 29 ;
30 [label="gini = 0.0\nsamples = 1\nvalue = [0, 0, 0, 0, 0, 3, 0]"] ;
29 -> 30 ;
31 [label="zona supermercato(periferia,residenziale)_Periferia <= 0.5\ngini = 0.5\nsamples = 2\nvalue = [0, 0, 0, 0, 1, 1, 0]"] ;
29 -> 31 ;
32 [label="gini = 0.0\nsamples = 1\nvalue = [0, 0, 0, 0, 0, 1, 0]"] ;
31 -> 32 ;
33 [label="gini = 0.0\nsamples = 1\nvalue = [0, 0, 0, 0, 1, 0, 0]"] ;
31 -> 33 ;
34 [label="stagione_Primavera <= 0.5\ngini = 0.5\nsamples = 12\nvalue = [0, 0, 3, 10, 2, 0, 0]"] ;
28 -> 34 ;
35 [label="dimensione confezione(piccola,media,grande)_Grande <= 0.5\ngini = 0.6\nsamples = 9\nvalue = [0, 0, 3, 6, 2, 0, 0]"] ;
34 -> 35 ;
36 [label="stagione_Estate <= 0.5\ngini = 0.6\nsamples = 5\nvalue = [0, 0, 1, 3, 2, 0, 0]"] ;
35 -> 36 ;
37 [label="costo(prezzo) <= 300.0\ngini = 0.6\nsamples = 3\nvalue = [0, 0, 1, 2, 1, 0, 0]"] ;
36 -> 37 ;
38 [label="gini = 0.0\nsamples = 1\nvalue = [0, 0, 0, 2, 0, 0, 0]"] ;
37 -> 38 ;
39 [label="zona supermercato(periferia,residenziale)_Periferia <= 0.5\ngini = 0.5\nsamples = 2\nvalue = [0, 0, 1, 0, 1, 0, 0]"] ;
37 -> 39 ;
40 [label="gini = 0.0\nsamples = 1\nvalue = [0, 0, 0, 0, 1, 0, 0]"] ;
39 -> 40 ;
41 [label="gini = 0.0\nsamples = 1\nvalue = [0, 0, 1, 0, 0, 0, 0]"] ;
39 -> 41 ;
42 [label="zona supermercato(periferia,residenziale)_Periferia <= 0.5\ngini = 0.5\nsamples = 2\nvalue = [0, 0, 0, 1, 1, 0, 0]"] ;
36 -> 42 ;
43 [label="gini = 0.0\nsamples = 1\nvalue = [0, 0, 0, 0, 1, 0, 0]"] ;
42 -> 43 ;
44 [label="gini = 0.0\nsamples = 1\nvalue = [0, 0, 0, 1, 0, 0, 0]"] ;
42 -> 44 ;
45 [label="zona supermercato(periferia,residenziale)_Periferia <= 0.5\ngini = 0.5\nsamples = 4\nvalue = [0, 0, 2, 3, 0, 0, 0]"] ;
35 -> 45 ;
46 [label="gini = 0.0\nsamples = 2\nvalue = [0, 0, 0, 3, 0, 0, 0]"] ;
45 -> 46 ;
47 [label="gini = 0.0\nsamples = 2\nvalue = [0, 0, 2, 0, 0, 0, 0]"] ;
45 -> 47 ;
48 [label="gini = 0.0\nsamples = 3\nvalue = [0, 0, 0, 4, 0, 0, 0]"] ;
34 -> 48 ;
49 [label="spedizione(prezzo) <= 6.0\ngini = 0.7\nsamples = 19\nvalue = [0, 1, 9, 3, 1, 4, 15]"] ;
23 -> 49 ;
50 [label="stagione_Primavera <= 0.5\ngini = 0.4\nsamples = 5\nvalue = [0, 0, 0, 0, 0, 4, 10]"] ;
49 -> 50 ;
51 [label="costo(prezzo) <= 15.0\ngini = 0.5\nsamples = 4\nvalue = [0, 0, 0, 0, 0, 4, 3]"] ;
50 -> 51 ;
52 [label="gini = 0.0\nsamples = 2\nvalue = [0, 0, 0, 0, 0, 0, 3]"] ;
51 -> 52 ;
53 [label="gini = 0.0\nsamples = 2\nvalue = [0, 0, 0, 0, 0, 4, 0]"] ;
51 -> 53 ;
54 [label="gini = 0.0\nsamples = 1\nvalue = [0, 0, 0, 0, 0, 0, 7]"] ;
50 -> 54 ;
55 [label="spedizione(prezzo) <= 15.0\ngini = 0.7\nsamples = 14\nvalue = [0, 1, 9, 3, 1, 0, 5]"] ;
49 -> 55 ;
56 [label="stagione_Inverno <= 0.5\ngini = 0.6\nsamples = 13\nvalue = [0, 0, 9, 3, 1, 0, 5]"] ;
55 -> 56 ;
57 [label="zona supermercato(periferia,residenziale)_Periferia <= 0.5\ngini = 0.5\nsamples = 9\nvalue = [0, 0, 8, 2, 0, 0, 3]"] ;
56 -> 57 ;
58 [label="gini = 0.0\nsamples = 2\nvalue = [0, 0, 4, 0, 0, 0, 0]"] ;
57 -> 58 ;
59 [label="spedizione(prezzo) <= 8.5\ngini = 0.6\nsamples = 7\nvalue = [0, 0, 4, 2, 0, 0, 3]"] ;
57 -> 59 ;
60 [label="gini = 0.0\nsamples = 1\nvalue = [0, 0, 1, 0, 0, 0, 0]"] ;
59 -> 60 ;
61 [label="stagione_Primavera <= 0.5\ngini = 0.7\nsamples = 6\nvalue = [0, 0, 3, 2, 0, 0, 3]"] ;
59 -> 61 ;
62 [label="costo(prezzo) <= 105.0\ngini = 0.4\nsamples = 3\nvalue = [0, 0, 2, 0, 0, 0, 1]"] ;
61 -> 62 ;
63 [label="gini = 0.0\nsamples = 1\nvalue = [0, 0, 0, 0, 0, 0, 1]"] ;
62 -> 63 ;
64 [label="gini = 0.0\nsamples = 2\nvalue = [0, 0, 2, 0, 0, 0, 0]"] ;
62 -> 64 ;
65 [label="costo(prezzo) <= 55.0\ngini = 0.6\nsamples = 3\nvalue = [0, 0, 1, 2, 0, 0, 2]"] ;
61 -> 65 ;
66 [label="gini = 0.0\nsamples = 1\nvalue = [0, 0, 0, 0, 0, 0, 2]"] ;
65 -> 66 ;
67 [label="costo(prezzo) <= 300.0\ngini = 0.4\nsamples = 2\nvalue = [0, 0, 1, 2, 0, 0, 0]"] ;
65 -> 67 ;
68 [label="gini = 0.0\nsamples = 1\nvalue = [0, 0, 0, 2, 0, 0, 0]"] ;
67 -> 68 ;
69 [label="gini = 0.0\nsamples = 1\nvalue = [0, 0, 1, 0, 0, 0, 0]"] ;
67 -> 69 ;
70 [label="zona supermercato(periferia,residenziale)_Residenziale <= 0.5\ngini = 0.7\nsamples = 4\nvalue = [0, 0, 1, 1, 1, 0, 2]"] ;
56 -> 70 ;
71 [label="costo(prezzo) <= 55.0\ngini = 0.4\nsamples = 2\nvalue = [0, 0, 0, 1, 0, 0, 2]"] ;
70 -> 71 ;
72 [label="gini = 0.0\nsamples = 1\nvalue = [0, 0, 0, 0, 0, 0, 2]"] ;
71 -> 72 ;
73 [label="gini = 0.0\nsamples = 1\nvalue = [0, 0, 0, 1, 0, 0, 0]"] ;
71 -> 73 ;
74 [label="costo(prezzo) <= 350.0\ngini = 0.5\nsamples = 2\nvalue = [0, 0, 1, 0, 1, 0, 0]"] ;
70 -> 74 ;
75 [label="gini = 0.0\nsamples = 1\nvalue = [0, 0, 1, 0, 0, 0, 0]"] ;
74 -> 75 ;
76 [label="gini = 0.0\nsamples = 1\nvalue = [0, 0, 0, 0, 1, 0, 0]"] ;
74 -> 76 ;
77 [label="gini = 0.0\nsamples = 1\nvalue = [0, 1, 0, 0, 0, 0, 0]"] ;
55 -> 77 ;
78 [label="dimensione confezione(piccola,media,grande)_Media <= 0.5\ngini = 0.7\nsamples = 12\nvalue = [0, 0, 4, 7, 1, 0, 5]"] ;
22 -> 78 ;
79 [label="dimensione confezione(piccola,media,grande)_Piccola <= 0.5\ngini = 0.6\nsamples = 6\nvalue = [0, 0, 3, 5, 0, 0, 1]"] ;
78 -> 79 ;
80 [label="zona supermercato(periferia,residenziale)_Residenziale <= 0.5\ngini = 0.4\nsamples = 3\nvalue = [0, 0, 1, 2, 0, 0, 0]"] ;
79 -> 80 ;
81 [label="gini = 0.0\nsamples = 1\nvalue = [0, 0, 1, 0, 0, 0, 0]"] ;
80 -> 81 ;
82 [label="gini = 0.0\nsamples = 2\nvalue = [0, 0, 0, 2, 0, 0, 0]"] ;
80 -> 82 ;
83 [label="costo(prezzo) <= 750.0\ngini = 0.6\nsamples = 3\nvalue = [0, 0, 2, 3, 0, 0, 1]"] ;
79 -> 83 ;
84 [label="costo(prezzo) <= 255.0\ngini = 0.4\nsamples = 2\nvalue = [0, 0, 0, 3, 0, 0, 1]"] ;
83 -> 84 ;
85 [label="gini = 0.0\nsamples = 1\nvalue = [0, 0, 0, 0, 0, 0, 1]"] ;
84 -> 85 ;
86 [label="gini = 0.0\nsamples = 1\nvalue = [0, 0, 0, 3, 0, 0, 0]"] ;
84 -> 86 ;
87 [label="gini = 0.0\nsamples = 1\nvalue = [0, 0, 2, 0, 0, 0, 0]"] ;
83 -> 87 ;
88 [label="spedizione(prezzo) <= 7.5\ngini = 0.7\nsamples = 6\nvalue = [0, 0, 1, 2, 1, 0, 4]"] ;
78 -> 88 ;
89 [label="gini = 0.0\nsamples = 3\nvalue = [0, 0, 0, 0, 0, 0, 4]"] ;
88 -> 89 ;
90 [label="costo(prezzo) <= 300.0\ngini = 0.6\nsamples = 3\nvalue = [0, 0, 1, 2, 1, 0, 0]"] ;
88 -> 90 ;
91 [label="gini = 0.0\nsamples = 1\nvalue = [0, 0, 0, 2, 0, 0, 0]"] ;
90 -> 91 ;
92 [label="zona supermercato(periferia,residenziale)_Residenziale <= 0.5\ngini = 0.5\nsamples = 2\nvalue = [0, 0, 1, 0, 1, 0, 0]"] ;
90 -> 92 ;
93 [label="gini = 0.0\nsamples = 1\nvalue = [0, 0, 1, 0, 0, 0, 0]"] ;
92 -> 93 ;
94 [label="gini = 0.0\nsamples = 1\nvalue = [0, 0, 0, 0, 1, 0, 0]"] ;
92 -> 94 ;
95 [label="stagione_Estate <= 0.5\ngini = 0.7\nsamples = 27\nvalue = [0, 0, 7, 5, 18, 8, 7]"] ;
21 -> 95 ;
96 [label="dimensione confezione(piccola,media,grande)_Piccola <= 0.5\ngini = 0.7\nsamples = 17\nvalue = [0, 0, 4, 2, 13, 4, 6]"] ;
95 -> 96 ;
97 [label="stagione_Inverno <= 0.5\ngini = 0.7\nsamples = 13\nvalue = [0, 0, 4, 0, 4, 4, 6]"] ;
96 -> 97 ;
98 [label="zona supermercato(periferia,residenziale)_Periferia <= 0.5\ngini = 0.7\nsamples = 9\nvalue = [0, 0, 4, 0, 1, 3, 4]"] ;
97 -> 98 ;
99 [label="costo(prezzo) <= 150.0\ngini = 0.7\nsamples = 6\nvalue = [0, 0, 3, 0, 1, 2, 2]"] ;
98 -> 99 ;
100 [label="spedizione(prezzo) <= 6.0\ngini = 0.6\nsamples = 4\nvalue = [0, 0, 0, 0, 1, 2, 2]"] ;
99 -> 100 ;
101 [label="gini = 0.0\nsamples = 1\nvalue = [0, 0, 0, 0, 0, 0, 2]"] ;
100 -> 101 ;
102 [label="costo(prezzo) <= 55.0\ngini = 0.4\nsamples = 3\nvalue = [0, 0, 0, 0, 1, 2, 0]"] ;
100 -> 102 ;
103 [label="gini = 0.0\nsamples = 2\nvalue = [0, 0, 0, 0, 0, 2, 0]"] ;
102 -> 103 ;
104 [label="gini = 0.0\nsamples = 1\nvalue = [0, 0, 0, 0, 1, 0, 0]"] ;
102 -> 104 ;
105 [label="gini = 0.0\nsamples = 2\nvalue = [0, 0, 3, 0, 0, 0, 0]"] ;
99 -> 105 ;
106 [label="dimensione confezione(piccola,media,grande)_Media <= 0.5\ngini = 0.6\nsamples = 3\nvalue = [0, 0, 1, 0, 0, 1, 2]"] ;
98 -> 106 ;
107 [label="gini = 0.0\nsamples = 1\nvalue = [0, 0, 0, 0, 0, 1, 0]"] ;
106 -> 107 ;
108 [label="costo(prezzo) <= 110.0\ngini = 0.4\nsamples = 2\nvalue = [0, 0, 1, 0, 0, 0, 2]"] ;
106 -> 108 ;
109 [label="gini = 0.0\nsamples = 1\nvalue = [0, 0, 0, 0, 0, 0, 2]"] ;
108 -> 109 ;
110 [label="gini = 0.0\nsamples = 1\nvalue = [0, 0, 1, 0, 0, 0, 0]"] ;
108 -> 110 ;
111 [label="dimensione confezione(piccola,media,grande)_Grande <= 0.5\ngini = 0.6\nsamples = 4\nvalue = [0, 0, 0, 0, 3, 1, 2]"] ;
97 -> 111 ;
112 [label="gini = 0.0\nsamples = 2\nvalue = [0, 0, 0, 0, 0, 0, 2]"] ;
111 -> 112 ;
113 [label="zona supermercato(periferia,residenziale)_Periferia <= 0.5\ngini = 0.4\nsamples = 2\nvalue = [0, 0, 0, 0, 3, 1, 0]"] ;
111 -> 113 ;
114 [label="gini = 0.0\nsamples = 1\nvalue = [0, 0, 0, 0, 3, 0, 0]"] ;
113 -> 114 ;
115 [label="gini = 0.0\nsamples = 1\nvalue = [0, 0, 0, 0, 0, 1, 0]"] ;
113 -> 115 ;
116 [label="zona supermercato(periferia,residenziale)_Periferia <= 0.5\ngini = 0.3\nsamples = 4\nvalue = [0, 0, 0, 2, 9, 0, 0]"] ;
96 -> 116 ;
117 [label="spedizione(prezzo) <= 15.0\ngini = 0.4\nsamples = 3\nvalue = [0, 0, 0, 2, 5, 0, 0]"] ;
116 -> 117 ;
118 [label="gini = 0.0\nsamples = 2\nvalue = [0, 0, 0, 0, 5, 0, 0]"] ;
117 -> 118 ;
119 [label="gini = 0.0\nsamples = 1\nvalue = [0, 0, 0, 2, 0, 0, 0]"] ;
117 -> 119 ;
120 [label="gini = 0.0\nsamples = 1\nvalue = [0, 0, 0, 0, 4, 0, 0]"] ;
116 -> 120 ;
121 [label="dimensione confezione(piccola,media,grande)_Media <= 0.5\ngini = 0.8\nsamples = 10\nvalue = [0, 0, 3, 3, 5, 4, 1]"] ;
95 -> 121 ;
122 [label="dimensione confezione(piccola,media,grande)_Piccola <= 0.5\ngini = 0.6\nsamples = 7\nvalue = [0, 0, 0, 3, 5, 2, 0]"] ;
121 -> 122 ;
123 [label="zona supermercato(periferia,residenziale)_Periferia <= 0.5\ngini = 0.6\nsamples = 4\nvalue = [0, 0, 0, 1, 2, 2, 0]"] ;
122 -> 123 ;
124 [label="costo(prezzo) <= 55.0\ngini = 0.4\nsamples = 2\nvalue = [0, 0, 0, 0, 2, 1, 0]"] ;
123 -> 124 ;
125 [label="gini = 0.0\nsamples = 1\nvalue = [0, 0, 0, 0, 0, 1, 0]"] ;
124 -> 125 ;
126 [label="gini = 0.0\nsamples = 1\nvalue = [0, 0, 0, 0, 2, 0, 0]"] ;
124 -> 126 ;
127 [label="costo(prezzo) <= 55.0\ngini = 0.5\nsamples = 2\nvalue = [0, 0, 0, 1, 0, 1, 0]"] ;
123 -> 127 ;
128 [label="gini = 0.0\nsamples = 1\nvalue = [0, 0, 0, 0, 0, 1, 0]"] ;
127 -> 128 ;
129 [label="gini = 0.0\nsamples = 1\nvalue = [0, 0, 0, 1, 0, 0, 0]"] ;
127 -> 129 ;
130 [label="costo(prezzo) <= 750.0\ngini = 0.5\nsamples = 3\nvalue = [0, 0, 0, 2, 3, 0, 0]"] ;
122 -> 130 ;
131 [label="gini = 0.0\nsamples = 1\nvalue = [0, 0, 0, 0, 3, 0, 0]"] ;
130 -> 131 ;
132 [label="gini = 0.0\nsamples = 2\nvalue = [0, 0, 0, 2, 0, 0, 0]"] ;
130 -> 132 ;
133 [label="spedizione(prezzo) <= 15.0\ngini = 0.6\nsamples = 3\nvalue = [0, 0, 3, 0, 0, 2, 1]"] ;
121 -> 133 ;
134 [label="zona supermercato(periferia,residenziale)_Periferia <= 0.5\ngini = 0.4\nsamples = 2\nvalue = [0, 0, 3, 0, 0, 0, 1]"] ;
133 -> 134 ;
135 [label="gini = 0.0\nsamples = 1\nvalue = [0, 0, 3, 0, 0, 0, 0]"] ;
134 -> 135 ;
136 [label="gini = 0.0\nsamples = 1\nvalue = [0, 0, 0, 0, 0, 0, 1]"] ;
134 -> 136 ;
137 [label="gini = 0.0\nsamples = 1\nvalue = [0, 0, 0, 0, 0, 2, 0]"] ;
133 -> 137 ;
138 [label="scadenza(breve,media,lunga)_Lunga <= 0.5\ngini = 0.7\nsamples = 58\nvalue = [7, 8, 44, 15, 17, 2, 0]"] ;
0 -> 138 [labeldistance=2.5, labelangle=-45, headlabel="False"] ;
139 [label="spedizione(prezzo) <= 17.5\ngini = 0.7\nsamples = 40\nvalue = [7, 8, 33, 8, 9, 0, 0]"] ;
138 -> 139 ;
140 [label="spedizione(prezzo) <= 6.0\ngini = 0.7\nsamples = 37\nvalue = [7, 4, 33, 8, 9, 0, 0]"] ;
139 -> 140 ;
141 [label="costo(prezzo) <= 12.5\ngini = 0.7\nsamples = 11\nvalue = [1, 0, 8, 6, 3, 0, 0]"] ;
140 -> 141 ;
142 [label="gini = 0.0\nsamples = 3\nvalue = [0, 0, 6, 0, 0, 0, 0]"] ;
141 -> 142 ;
143 [label="stagione_Primavera <= 0.5\ngini = 0.7\nsamples = 8\nvalue = [1, 0, 2, 6, 3, 0, 0]"] ;
141 -> 143 ;
144 [label="stagione_Estate <= 0.5\ngini = 0.4\nsamples = 5\nvalue = [1, 0, 0, 6, 1, 0, 0]"] ;
143 -> 144 ;
145 [label="gini = 0.0\nsamples = 1\nvalue = [0, 0, 0, 0, 1, 0, 0]"] ;
144 -> 145 ;
146 [label="festività(Feriale,Lavorativo)_Lavorativo <= 0.5\ngini = 0.2\nsamples = 4\nvalue = [1, 0, 0, 6, 0, 0, 0]"] ;
144 -> 146 ;
147 [label="gini = 0.0\nsamples = 3\nvalue = [0, 0, 0, 6, 0, 0, 0]"] ;
146 -> 147 ;
148 [label="gini = 0.0\nsamples = 1\nvalue = [1, 0, 0, 0, 0, 0, 0]"] ;
146 -> 148 ;
149 [label="dimensione confezione(piccola,media,grande)_Piccola <= 0.5\ngini = 0.5\nsamples = 3\nvalue = [0, 0, 2, 0, 2, 0, 0]"] ;
143 -> 149 ;
150 [label="gini = 0.0\nsamples = 2\nvalue = [0, 0, 0, 0, 2, 0, 0]"] ;
149 -> 150 ;
151 [label="gini = 0.0\nsamples = 1\nvalue = [0, 0, 2, 0, 0, 0, 0]"] ;
149 -> 151 ;
152 [label="stagione_Estate <= 0.5\ngini = 0.6\nsamples = 26\nvalue = [6, 4, 25, 2, 6, 0, 0]"] ;
140 -> 152 ;
153 [label="dimensione confezione(piccola,media,grande)_Piccola <= 0.5\ngini = 0.5\nsamples = 17\nvalue = [4, 0, 19, 0, 6, 0, 0]"] ;
152 -> 153 ;
154 [label="festività(Feriale,Lavorativo)_Lavorativo <= 0.5\ngini = 0.3\nsamples = 9\nvalue = [4, 0, 14, 0, 0, 0, 0]"] ;
153 -> 154 ;
155 [label="gini = 0.0\nsamples = 4\nvalue = [0, 0, 8, 0, 0, 0, 0]"] ;
154 -> 155 ;
156 [label="costo(prezzo) <= 55.0\ngini = 0.5\nsamples = 5\nvalue = [4, 0, 6, 0, 0, 0, 0]"] ;
154 -> 156 ;
157 [label="gini = 0.0\nsamples = 3\nvalue = [0, 0, 6, 0, 0, 0, 0]"] ;
156 -> 157 ;
158 [label="gini = 0.0\nsamples = 2\nvalue = [4, 0, 0, 0, 0, 0, 0]"] ;
156 -> 158 ;
159 [label="scadenza(breve,media,lunga)_Media <= 0.5\ngini = 0.5\nsamples = 8\nvalue = [0, 0, 5, 0, 6, 0, 0]"] ;
153 -> 159 ;
160 [label="festività(Feriale,Lavorativo)_Lavorativo <= 0.5\ngini = 0.5\nsamples = 6\nvalue = [0, 0, 5, 0, 4, 0, 0]"] ;
159 -> 160 ;
161 [label="gini = 0.0\nsamples = 2\nvalue = [0, 0, 0, 0, 4, 0, 0]"] ;
160 -> 161 ;
162 [label="gini = 0.0\nsamples = 4\nvalue = [0, 0, 5, 0, 0, 0, 0]"] ;
160 -> 162 ;
163 [label="gini = 0.0\nsamples = 2\nvalue = [0, 0, 0, 0, 2, 0, 0]"] ;
159 -> 163 ;
164 [label="festività(Feriale,Lavorativo)_Feriale <= 0.5\ngini = 0.7\nsamples = 9\nvalue = [2, 4, 6, 2, 0, 0, 0]"] ;
152 -> 164 ;
165 [label="dimensione confezione(piccola,media,grande)_Grande <= 0.5\ngini = 0.7\nsamples = 4\nvalue = [2, 3, 2, 0, 0, 0, 0]"] ;
164 -> 165 ;
166 [label="zona supermercato(periferia,residenziale)_Residenziale <= 0.5\ngini = 0.5\nsamples = 3\nvalue = [0, 3, 2, 0, 0, 0, 0]"] ;
165 -> 166 ;
167 [label="gini = 0.0\nsamples = 1\nvalue = [0, 1, 0, 0, 0, 0, 0]"] ;
166 -> 167 ;
168 [label="costo(prezzo) <= 30.0\ngini = 0.5\nsamples = 2\nvalue = [0, 2, 2, 0, 0, 0, 0]"] ;
166 -> 168 ;
169 [label="gini = 0.0\nsamples = 1\nvalue = [0, 2, 0, 0, 0, 0, 0]"] ;
168 -> 169 ;
170 [label="gini = 0.0\nsamples = 1\nvalue = [0, 0, 2, 0, 0, 0, 0]"] ;
168 -> 170 ;
171 [label="gini = 0.0\nsamples = 1\nvalue = [2, 0, 0, 0, 0, 0, 0]"] ;
165 -> 171 ;
172 [label="costo(prezzo) <= 12.5\ngini = 0.6\nsamples = 5\nvalue = [0, 1, 4, 2, 0, 0, 0]"] ;
164 -> 172 ;
173 [label="spedizione(prezzo) <= 8.5\ngini = 0.5\nsamples = 2\nvalue = [0, 0, 2, 2, 0, 0, 0]"] ;
172 -> 173 ;
174 [label="gini = 0.0\nsamples = 1\nvalue = [0, 0, 0, 2, 0, 0, 0]"] ;
173 -> 174 ;
175 [label="gini = 0.0\nsamples = 1\nvalue = [0, 0, 2, 0, 0, 0, 0]"] ;
173 -> 175 ;
176 [label="scadenza(breve,media,lunga)_Breve <= 0.5\ngini = 0.4\nsamples = 3\nvalue = [0, 1, 2, 0, 0, 0, 0]"] ;
172 -> 176 ;
177 [label="gini = 0.0\nsamples = 1\nvalue = [0, 0, 1, 0, 0, 0, 0]"] ;
176 -> 177 ;
178 [label="zona supermercato(periferia,residenziale)_Residenziale <= 0.5\ngini = 0.5\nsamples = 2\nvalue = [0, 1, 1, 0, 0, 0, 0]"] ;
176 -> 178 ;
179 [label="gini = 0.0\nsamples = 1\nvalue = [0, 1, 0, 0, 0, 0, 0]"] ;
178 -> 179 ;
180 [label="gini = 0.0\nsamples = 1\nvalue = [0, 0, 1, 0, 0, 0, 0]"] ;
178 -> 180 ;
181 [label="gini = 0.0\nsamples = 3\nvalue = [0, 4, 0, 0, 0, 0, 0]"] ;
139 -> 181 ;
182 [label="festività(Feriale,Lavorativo)_Lavorativo <= 0.5\ngini = 0.7\nsamples = 18\nvalue = [0, 0, 11, 7, 8, 2, 0]"] ;
138 -> 182 ;
183 [label="stagione_Inverno <= 0.5\ngini = 0.4\nsamples = 5\nvalue = [0, 0, 0, 0, 6, 2, 0]"] ;
182 -> 183 ;
184 [label="gini = 0.0\nsamples = 3\nvalue = [0, 0, 0, 0, 6, 0, 0]"] ;
183 -> 184 ;
185 [label="gini = 0.0\nsamples = 2\nvalue = [0, 0, 0, 0, 0, 2, 0]"] ;
183 -> 185 ;
186 [label="stagione_Inverno <= 0.5\ngini = 0.6\nsamples = 13\nvalue = [0, 0, 11, 7, 2, 0, 0]"] ;
182 -> 186 ;
187 [label="stagione_Autunno <= 0.5\ngini = 0.5\nsamples = 11\nvalue = [0, 0, 8, 7, 0, 0, 0]"] ;
186 -> 187 ;
188 [label="costo(prezzo) <= 12.5\ngini = 0.4\nsamples = 7\nvalue = [0, 0, 6, 3, 0, 0, 0]"] ;
187 -> 188 ;
189 [label="spedizione(prezzo) <= 8.5\ngini = 0.5\nsamples = 6\nvalue = [0, 0, 4, 3, 0, 0, 0]"] ;
188 -> 189 ;
190 [label="dimensione confezione(piccola,media,grande)_Piccola <= 0.5\ngini = 0.4\nsamples = 4\nvalue = [0, 0, 1, 3, 0, 0, 0]"] ;
189 -> 190 ;
191 [label="stagione_Estate <= 0.5\ngini = 0.5\nsamples = 2\nvalue = [0, 0, 1, 1, 0, 0, 0]"] ;
190 -> 191 ;
192 [label="gini = 0.0\nsamples = 1\nvalue = [0, 0, 0, 1, 0, 0, 0]"] ;
191 -> 192 ;
193 [label="gini = 0.0\nsamples = 1\nvalue = [0, 0, 1, 0, 0, 0, 0]"] ;
191 -> 193 ;
194 [label="gini = 0.0\nsamples = 2\nvalue = [0, 0, 0, 2, 0, 0, 0]"] ;
190 -> 194 ;
195 [label="gini = 0.0\nsamples = 2\nvalue = [0, 0, 3, 0, 0, 0, 0]"] ;
189 -> 195 ;
196 [label="gini = 0.0\nsamples = 1\nvalue = [0, 0, 2, 0, 0, 0, 0]"] ;
188 -> 196 ;
197 [label="spedizione(prezzo) <= 6.0\ngini = 0.4\nsamples = 4\nvalue = [0, 0, 2, 4, 0, 0, 0]"] ;
187 -> 197 ;
198 [label="gini = 0.0\nsamples = 1\nvalue = [0, 0, 0, 3, 0, 0, 0]"] ;
197 -> 198 ;
199 [label="costo(prezzo) <= 12.5\ngini = 0.4\nsamples = 3\nvalue = [0, 0, 2, 1, 0, 0, 0]"] ;
197 -> 199 ;
200 [label="zona supermercato(periferia,residenziale)_Periferia <= 0.5\ngini = 0.5\nsamples = 2\nvalue = [0, 0, 1, 1, 0, 0, 0]"] ;
199 -> 200 ;
201 [label="gini = 0.0\nsamples = 1\nvalue = [0, 0, 0, 1, 0, 0, 0]"] ;
200 -> 201 ;
202 [label="gini = 0.0\nsamples = 1\nvalue = [0, 0, 1, 0, 0, 0, 0]"] ;
200 -> 202 ;
203 [label="gini = 0.0\nsamples = 1\nvalue = [0, 0, 1, 0, 0, 0, 0]"] ;
199 -> 203 ;
204 [label="dimensione confezione(piccola,media,grande)_Media <= 0.5\ngini = 0.5\nsamples = 2\nvalue = [0, 0, 3, 0, 2, 0, 0]"] ;
186 -> 204 ;
205 [label="gini = 0.0\nsamples = 1\nvalue = [0, 0, 0, 0, 2, 0, 0]"] ;
204 -> 205 ;
206 [label="gini = 0.0\nsamples = 1\nvalue = [0, 0, 3, 0, 0, 0, 0]"] ;
204 -> 206 ;
}